-0.0188904199749231,0.0128860790282488,0.000783073948696256,-0.0347125492990017,-0.000185649711056612,0.0268975868821144,-0.0213529523462057,0.0292819868773222,0.0034211992751807,-0.0280941054224968,-0.0251291133463383,0.0102743739262223,-0.0486946254968643,-0.111330404877663,-0.110383927822113,-0.0526597425341606,0.0186993163079023,0.0214861519634724,0.012023851275444,0.0072315214201808,0.00401069177314639,0.0200180653482676,-0.0137683153152466,0.000383406964829192,-0.0225217826664448,-0.00575782358646393,0.00770083395764232,-0.00236420170404017,0.000452983134891838,-0.016497828066349,-0.0149149326607585,0.0174549259245396,-0.0243549682199955,0.0141421444714069,0.00991416536271572,-0.142986759543419,-0.276800751686096,-0.381876289844513,-0.230532363057137,0.19595131278038,0.213138461112976,0.206859797239304,-0.497569382190704,-0.594501495361328,-0.582223534584045,-0.43323090672493,-0.394997298717499,-0.269631266593933,-0.287252366542816,-0.367901086807251,-0.179317504167557,-0.0607377775013447,0.0116662196815014,0.0199814140796661,0.00639227218925953,-0.0291490573436022,-0.00322421663440764,-0.0200937483459711,0.00365013163536787,0.163466885685921,0.213154301047325,-0.0673303008079529,-0.182302445173264,-0.0876532793045044,-0.195759475231171,-0.590025663375854,-0.874598324298859,-0.248847052454948,-0.181077837944031,-0.308749973773956,-0.671296536922455,-1.09991359710693,-1.00235068798065,-1.10582494735718,-0.985640704631805,-0.647641599178314,-0.87272173166275,-0.796733021736145,-0.521350920200348,-0.396817624568939,-0.395782113075256,-0.0147370584309101,0.0347169563174248,0.0241427291184664,0.0235358644276857,0.000909398426301777,0.00809617806226015,0.156853899359703,-0.0446839593350887,-0.259250104427338,-0.300520747900009,-0.384739756584167,-0.596527099609375,-0.448468029499054,-0.159851685166359,-0.0271911527961493,-0.0791272595524788,0.0146528398618102,-0.136146262288094,-0.108502760529518,-0.0696549415588379,-0.0276266355067492,-0.221019491553307,-0.353742182254791,-0.287739485502243,-0.422708481550217,-0.251390010118484,-0.138283416628838,-0.041522890329361,-0.10477290302515,-0.249920696020126,-0.00169542187359184,0.00559639045968652,-0.0267573948949575,-0.203541919589043,0.172194689512253,-0.325021803379059,-0.388835191726685,-0.407152950763702,-0.10783801227808,-0.0390889085829258,0.0127314981073141,0.0180139504373074,0.0803038775920868,-0.0627589300274849,0.00637650117278099,-0.0715833604335785,-0.0437395945191383,-0.0923717245459557,0.0640661492943764,0.0260780416429043,-0.108199998736382,-0.144819438457489,-0.226804107427597,-0.0519230253994465,-0.165978714823723,-0.233051538467407,-0.271793037652969,-0.329389691352844,-0.221455723047256,0.00455734971910715,0.0312600657343864,-0.290419846773148,0.0752367153763771,-0.452357411384583,-0.53210186958313,-0.0973407924175262,-0.0840484872460365,-0.0526122860610485,-0.0896728858351707,0.0971440151333809,0.0771270021796227,-0.0150546608492732,0.0662489756941795,0.0858733132481575,0.0928316712379456,0.0960884764790535,0.11042595654726,0.0745022892951965,0.0614524185657501,-0.0290673580020666,0.044286884367466,0.013629948720336,-0.191953629255295,-0.329599738121033,-0.6438068151474,-0.535442233085632,-0.240741178393364,0.000768405152484775,-0.14011824131012,-0.30093789100647,-0.529823124408722,-0.387457549571991,-0.101834245026112,0.00803457573056221,-0.00347692449577153,-0.118214271962643,-0.179999679327011,-0.00689225038513541,-0.0585816130042076,-0.0703949630260468,0.134068474173546,0.158128947019577,0.0516993887722492,0.117601729929447,0.181350499391556,0.152502298355103,0.0840167552232742,0.0876167565584183,0.196737796068192,0.22828309237957,-0.0469705909490585,-0.567683577537537,-0.996732115745544,-0.57363748550415,-0.257601261138916,0.00909297540783882,-0.360974460840225,-0.252987116575241,-0.368017733097076,-0.50511771440506,-0.0580579303205013,0.0497854128479958,-0.0745359435677528,-0.248071506619453,-0.025250643491745,0.0382724106311798,-0.0193986985832453,0.0218392238020897,0.100631535053253,0.0929576531052589,0.0374166928231716,0.0988987609744072,0.27147302031517,0.254401594400406,0.112365052103996,0.01625488512218,0.0359764620661736,0.0792487263679504,0.177191063761711,-0.282694965600967,-1.00007009506226,-0.690547287464142,-0.233685091137886,0.202677741646767,-0.286401927471161,-0.258373141288757,-0.453522264957428,-0.473429322242737,-0.171625271439552,0.0117831798270345,-0.169797316193581,-0.0700427293777466,0.104550398886204,-0.0375602878630161,-0.00575367221608758,0.115058958530426,0.053539764136076,0.15124374628067,0.0932425782084465,0.287804007530212,0.233738139271736,0.225713148713112,0.0999560281634331,0.106034219264984,0.100056141614914,0.221225261688232,0.329606235027313,-0.0718616992235184,-0.782718062400818,-0.732809960842133,-0.396356910467148,-0.156671896576881,-0.270082652568817,0.166440263390541,-0.48184660077095,-0.202123031020164,-0.158434689044952,-0.0513887777924538,-0.0595434978604317,-0.0726095512509346,0.0383727997541428,0.0325316339731216,-0.00531868496909738,-0.00728832604363561,0.188323676586151,0.0500976480543613,-0.076582670211792,0.17118513584137,0.250773578882217,0.273196220397949,0.165307879447937,0.120579324662685,-0.00952377170324326,0.0615280382335186,0.353626370429993,0.0666845962405205,-0.694533169269562,-0.864910960197449,-0.338891744613647,-0.144239127635956,-0.331478536128998,0.154900804162025,-0.0571523196995258,0.0136681478470564,0.000861473090481013,-0.0609476752579212,-0.122239649295807,-0.041381448507309,0.0473402440547943,-0.137307271361351,-0.0206873919814825,0.0116844242438674,0.0546463914215565,-0.0586775317788124,-0.190774828195572,-0.0494127534329891,0.22311244904995,0.26258048415184,0.042359970510006,0.0988800823688507,0.0343550704419613,0.113026179373264,0.309844195842743,0.138924166560173,-0.574796855449677,-0.624841690063477,-0.321273535490036,-0.125288084149361,0.215753316879272,-0.661472320556641,-0.550249755382538,-0.265726804733276,-0.205342024564743,-0.0154727827757597,-0.0564892590045929,0.0157069079577923,-0.0400541611015797,-0.0778970196843147,-0.0567304119467735,-0.152939587831497,-0.10055285692215,-0.428928375244141,-0.573636770248413,-0.450314790010452,-0.138414710760117,-0.0994271859526634,0.0382139161229134,0.117214694619179,0.189839854836464,0.258045762777328,0.240595445036888,0.102628290653229,-0.370665162801743,-0.641275644302368,-0.194492027163506,-0.0719419866800308,0.17702928185463,-0.377627730369568,-0.497347056865692,-0.1788220256567,-0.0994733870029449,0.0250820573419333,-0.0136039257049561,-0.0805915147066116,-0.0135925197973847,-0.044808529317379,0.0300942864269018,0.0216346960514784,-0.202891424298286,-0.586605072021484,-0.664188027381897,-0.612474083900452,-0.177481457591057,-0.105564132332802,-0.0802236124873161,0.0241331290453672,0.0977011546492577,0.210940942168236,0.245789125561714,0.377944380044937,-0.06251510232687,-0.483159869909286,-0.20553158223629,0.0079940278083086,0.211903795599937,0.119806863367558,-0.210243061184883,-0.0196231715381145,-0.0519443303346634,0.192213177680969,0.102512255311012,0.0755598694086075,0.0502081625163555,0.103934854269028,0.0515779107809067,0.0051276171579957,-0.426812440156937,-0.63431841135025,-0.797068178653717,-0.705402612686157,-0.195302501320839,-0.0475508309900761,-0.172122329473495,-0.0985177084803581,0.0725259855389595,0.184408247470856,0.316882371902466,0.337861925363541,0.104858912527561,-0.404420137405396,-0.21698971092701,-0.00228235847316682,-0.266564816236496,-0.365238875150681,-0.31146639585495,0.0207365099340677,0.176950395107269,0.158846452832222,0.258456975221634,0.146782293915749,0.127017840743065,0.104376740753651,0.0725491940975189,-0.0655902400612831,-0.379430919885635,-0.594392061233521,-0.763808071613312,-0.619937241077423,-0.125999584794044,-0.09209094196558,-0.139735013246536,-0.0563333332538605,0.119815945625305,0.0670611262321472,0.249330878257751,0.247046530246735,0.131961300969124,-0.621646046638489,-0.273662954568863,-0.181779623031616,-0.0459342189133167,-0.435022622346878,-0.30439168214798,0.13428370654583,0.289553821086884,-0.00329178408719599,0.198817521333694,0.174787566065788,0.198844850063324,0.193270236253738,0.0686669275164604,-0.144895970821381,-0.618864297866821,-0.781292855739594,-0.705959439277649,-0.411683410406113,-0.265967011451721,-0.0526978448033333,-0.0993443205952644,0.0991314128041267,0.116644620895386,0.0518726073205471,0.240875631570816,0.171455308794975,0.111568622291088,-0.454538315534592,-0.269556045532227,-0.204216092824936,-0.218638747930527,-0.390654414892197,-0.258509755134583,0.13762478530407,0.196607038378716,0.0989331975579262,0.190700143575668,0.264964789152145,0.172614231705666,0.150562882423401,0.0486728847026825,-0.329609543085098,-0.720321834087372,-0.719262301921844,-0.472967267036438,-0.345948308706284,-0.0906350910663605,0.00486748572438955,-0.019469328224659,0.164048910140991,0.110423907637596,0.0138800386339426,0.110950611531734,0.0147640584036708,-0.164101839065552,-0.312410920858383,-0.0727146789431572,-0.0221355557441711,-0.236219376325607,-0.360908836126328,-0.177917838096619,-0.0125633338466287,0.0905931740999222,0.171175822615623,0.135390847921371,0.138485729694366,0.246870368719101,0.281794428825378,-0.0119933020323515,-0.285543113946915,-0.646506011486053,-0.612902522087097,-0.358537226915359,-0.139806628227234,0.0871903225779533,-0.0197609029710293,0.000640712678432465,0.0857465043663979,-0.00630549294874072,0.123753808438778,0.0127514200285077,-0.0104718105867505,-0.162629827857018,-0.382276028394699,0.197145879268646,-0.0276199467480183,-0.187579080462456,-0.519786238670349,-0.32387438416481,-0.0998229756951332,-0.0814523845911026,0.0110442060977221,0.139140903949738,0.130909472703934,0.2656409740448,0.274399161338806,0.0344048477709293,-0.240117058157921,-0.507161796092987,-0.442500740289688,-0.228841587901115,-0.0900284945964813,-0.0372113548219204,0.00152939185500145,-0.0654669031500816,-0.00531529216095805,-0.0359504073858261,0.0872769504785538,0.0774222835898399,-0.0301844105124474,-0.484444975852966,-0.327775716781616,-0.256136178970337,-0.0315843932330608,-0.201419606804848,-0.40869003534317,-0.192200869321823,-0.119806230068207,-0.0617674216628075,0.0454474240541458,0.118854656815529,0.085558220744133,0.138666316866875,0.266334027051926,0.227700412273407,0.0416205786168575,-0.138201400637627,-0.13194552063942,-0.0570621527731419,-0.0943997278809547,-0.0342920050024986,-0.0888030454516411,-0.175260528922081,-0.013121529482305,0.0199221782386303,0.102836117148399,-0.0524745248258114,-0.107414484024048,-0.643867313861847,-0.446007192134857,-0.243526235222816,-0.0179514065384865,-0.257512271404266,-0.417435437440872,-0.13787154853344,-0.00850668456405401,0.0689008682966232,-0.026399090886116,-0.00511559378355742,0.0317197516560555,0.142388820648193,0.260820955038071,0.325844824314117,0.231375515460968,0.0503849722445011,-0.0157727710902691,-0.0062498552724719,-0.0466946996748447,-0.0276309661567211,-0.154408499598503,-0.172138676047325,-0.153321802616119,-0.00540584698319435,-0.0586328916251659,-0.201292797923088,-0.140958040952682,-0.543049693107605,-0.567375183105469,-0.112637184560299,-0.0104444921016693,-0.217692479491234,-0.306047439575195,-0.0587232634425163,-0.00821029953658581,0.0247810650616884,0.0282817129045725,-0.011601104401052,-0.0539740920066833,0.0828777551651001,0.207834824919701,0.213785320520401,0.150656476616859,0.0549563318490982,-0.00942886061966419,0.00397170800715685,-0.0408922359347343,-0.164160624146461,-0.209532961249352,-0.184245809912682,-0.0329894199967384,-0.0801320299506187,-0.0508165620267391,-0.106177799403667,-0.133901506662369,-0.401475876569748,-0.302980273962021,-0.0122594591230154,-0.000231957819778472,-0.0743668228387833,-0.357434272766113,-0.351400345563889,-0.314854979515076,-0.0284140389412642,0.0564257055521011,0.0188698880374432,0.0787308514118195,0.103111334145069,0.151952505111694,0.187618687748909,0.160514563322067,0.280374705791473,0.133076742291451,0.0903214365243912,0.0276342444121838,-0.0146414190530777,-0.0914910882711411,-0.0938232988119125,-0.121993906795979,-0.071001835167408,0.0428575836122036,0.0363279171288013,-0.106276549398899,-0.300936460494995,-0.241920873522758,0.026572085916996,-0.00115285324864089,0.0182365719228983,-0.363193184137344,-0.444270461797714,-0.511647284030914,-0.285152524709702,-0.0761158689856529,0.0660186111927032,0.0377389378845692,0.123752549290657,0.258492916822433,0.278324395418167,0.230652257800102,0.232073575258255,0.174189954996109,0.136716276407242,0.00112108490429819,0.0477478019893169,-0.252137988805771,-0.348462998867035,-0.253201633691788,-0.102977178990841,0.0144787458702922,-0.130138069391251,-0.402294844388962,-0.270585238933563,-0.213137552142143,0.0300927981734276,-0.0340342409908772,-0.0219351761043072,-0.145514592528343,-0.67283970117569,-0.320099204778671,-0.422990649938583,-0.38658195734024,-0.243915274739265,-0.0583664923906326,0.0145286228507757,0.065275751054287,0.0553387925028801,0.124352373182774,0.110278390347958,0.163830369710922,0.0968699604272842,-0.165612831711769,-0.235931992530823,-0.39201295375824,-0.62839013338089,-0.596919417381287,-0.447005748748779,-0.471007019281387,-0.595664083957672,-0.476960748434067,-0.234056606888771,-0.0260266494005919,0.026104249060154,-0.0182158909738064,0.0224266964942217,-0.224950194358826,-0.295722663402557,-0.440362691879272,-0.608361780643463,-0.499870330095291,-0.40457871556282,-0.616955101490021,-0.811063587665558,-0.773252904415131,-0.662234246730804,-0.667351365089417,-0.644912958145142,-0.734257161617279,-0.838445007801056,-0.801765978336334,-0.720822334289551,-0.756868600845337,-0.910686016082764,-0.573343813419342,-0.640213191509247,-0.485813230276108,-0.430079460144043,-0.324667572975159,-0.0245157647877932,-0.00889511872082949,0.0245057716965675,-0.00826943013817072,-0.00529727386310697,0.00423129089176655,-0.0703418925404549,-0.390025585889816,-0.259474277496338,-0.41498014330864,-0.424208909273148,-0.823295712471008,-0.854198813438416,-0.908494651317596,-0.888334453105927,-1.06338620185852,-0.671255588531494,-0.613847017288208,-0.750800490379333,-0.625134706497192,-0.560868680477142,-0.610177636146545,-0.596175074577332,-0.288934499025345,-0.427746146917343,-0.309952169656754,-0.343760102987289,-0.107919000089169,-0.0180694591253996,0.030834348872304,-0.0314786061644554,0.0339318327605724,-0.00761894416064024,-0.0058710528537631,0.014055416919291,-0.0239718910306692,-0.153243869543076,-0.281594425439835,-0.392323821783066,-0.372318804264069,-0.430694967508316,-0.723635077476501,-0.771343231201172,-0.651092708110809,-0.414504200220108,-0.511630475521088,-0.477125704288483,-0.462714403867722,-0.457577615976334,-0.359023541212082,-0.249508008360863,-0.242177277803421,-0.225529119372368,-0.211947202682495,-0.268401592969894,-0.00278608640655875,-0.035001028329134,0.00558435684069991,-0.0183207932859659
-0.0104644550010562,-0.0176063496619463,-0.00201870407909155,-0.00854120124131441,0.0323033593595028,-0.0161296408623457,0.0225198809057474,-0.0279035419225693,-0.013801995664835,-0.0274211019277573,-0.0102078700438142,0.00047698404523544,0.0123062524944544,-0.0330892987549305,-0.0317588225007057,-0.0277608744800091,-0.00591557798907161,0.0236047953367233,-0.0298975165933371,-0.0268953889608383,0.0270482245832682,-0.00689628161489964,-0.0318998470902443,0.0224638227373362,-0.0131611842662096,-0.0165623128414154,0.0323256105184555,-0.018891479820013,-0.0186069365590811,0.0355368405580521,-0.0275516398251057,0.0129992011934519,-0.0200295634567738,-0.0547010824084282,-0.0360964387655258,-0.216744020581245,-0.195322811603546,-0.211532011628151,-0.26281812787056,-0.326792359352112,-0.27796745300293,-0.276630580425262,0.223879456520081,0.184021189808846,-0.325104504823685,-0.456723839044571,-0.275074481964111,-0.210855916142464,-0.276773303747177,-0.188093259930611,-0.0235713515430689,-0.0484745651483536,-0.00364478095434606,0.0238193217664957,0.027528939768672,0.0272235497832298,-0.00294268317520618,0.0337562039494514,-0.00892527028918266,-0.0292239766567945,0.0262001734226942,-0.145551413297653,-0.181996703147888,-0.26611539721489,-0.27623987197876,-0.297233641147614,-0.480638802051544,-0.372876763343811,-0.459890455007553,0.225422829389572,0.322540402412415,0.324793249368668,0.263136476278305,-0.333642989397049,-0.150529310107231,0.017144275829196,-0.101440101861954,-0.404761493206024,-0.478226631879807,-0.286370754241943,-0.284715116024017,-0.171534463763237,-0.00615165336057544,-0.017114169895649,0.0172128695994616,0.0095985010266304,0.191756531596184,0.211127310991287,-0.229072645306587,-0.278675824403763,-0.455351680517197,-0.476241260766983,-0.534308791160583,-0.446360528469086,-0.714046716690063,-0.693566024303436,-0.276662290096283,-0.0695690885186195,0.00306049501523376,0.0626659467816353,0.00904401578009129,-0.276028275489807,-0.350444465875626,-0.370351284742355,-0.273721158504486,-0.17460310459137,-0.256272494792938,-0.512638986110687,-0.444916933774948,-0.237192928791046,-0.205265313386917,-0.0202937982976437,0.0258150063455105,0.0200680550187826,0.212161719799042,0.201265931129456,-0.431031703948975,-0.189740762114525,-0.505949854850769,-0.387185454368591,-0.0605181567370892,-0.118509575724602,-0.0665796846151352,-0.251851588487625,-0.255747377872467,0.0448690578341484,0.168366223573685,0.13792721927166,-0.109234064817429,-0.141261383891106,-0.11339183151722,-0.00870673730969429,0.0801650658249855,0.121319763362408,-0.0142563339322805,-0.00768384337425232,-0.493873476982117,-0.48199337720871,-0.421769648790359,-0.241113126277924,0.0307859666645527,-0.005469576921314,0.27837610244751,0.23858168721199,0.273994624614716,0.148073315620422,0.0774143561720848,-0.11436901986599,-0.327916830778122,-0.264901727437973,-0.258284837007523,-0.361789017915726,-0.284068316221237,-0.0267257075756788,0.000480088085168973,0.00169931049458683,-0.195091158151627,-0.220026075839996,-0.0570934936404228,-0.0208871029317379,0.0702659264206886,0.0968482121825218,0.158984184265137,0.0738450288772583,-0.1558847874403,-0.623269319534302,-0.322274029254913,-0.25469833612442,0.0101049998775125,-0.167420476675034,-0.248113334178925,0.103771030902863,0.112980701029301,-0.0989358350634575,-0.00354552431963384,-0.183434784412384,-0.201143473386765,-0.327977180480957,-0.22267097234726,-0.136132940649986,-0.217419102787971,-0.147500291466713,-0.177963390946388,-0.26010525226593,-0.333300471305847,-0.300954282283783,-0.114274300634861,-0.10229080915451,-0.0493267215788364,-0.0125117907300591,-0.0317770093679428,-0.0736490115523338,-0.314859539270401,-0.951290428638458,-0.48162180185318,-0.198680490255356,0.00442467955872416,-0.27697017788887,-0.23694708943367,-0.23589351773262,-0.48755207657814,-0.435707122087479,-0.272297263145447,-0.27226659655571,-0.273458063602448,-0.237414240837097,-0.164142742753029,-0.168623819947243,-0.0666652843356133,-0.18660019338131,-0.136346429586411,-0.231622636318207,-0.216852933168411,-0.232186511158943,-0.128619983792305,-0.079519234597683,0.0268615707755089,-0.10888347774744,-0.156015887856483,-0.24214893579483,-0.910263240337372,-0.862994253635406,-0.468673944473267,-0.268008351325989,-0.0834123492240906,-0.236638724803925,-0.199105724692345,-0.236726298928261,-0.395185917615891,-0.536644399166107,-0.469263225793839,-0.318807303905487,-0.318265616893768,-0.333850562572479,-0.241577669978142,-0.243823915719986,-0.129689812660217,-0.0208170581609011,0.0362543314695358,-0.0232446137815714,-0.105294898152351,-0.011257266625762,-0.0554521381855011,-0.125060170888901,-0.19463637471199,-0.174173682928085,-0.262860506772995,-0.530582845211029,-0.797748327255249,-0.763836026191711,-0.481573790311813,-0.251973181962967,-0.212668925523758,0.203666031360626,-0.237333998084068,-0.309049069881439,-0.594046056270599,-0.632181823253632,-0.394080579280853,-0.113463506102562,-0.141326874494553,-0.233407452702522,-0.229089915752411,-0.0900649949908257,-0.0553219169378281,0.10282040387392,0.210513934493065,0.336122989654541,0.178763702511787,-0.0442925877869129,-0.148432910442352,-0.229815289378166,-0.338246285915375,-0.281590580940247,-0.459041088819504,-0.771050035953522,-0.70165878534317,-0.777461767196655,-0.35476952791214,-0.290758371353149,-0.205599009990692,0.22065095603466,-0.267369955778122,-0.31237468123436,-0.465293198823929,-0.699650228023529,-0.281448602676392,-0.237198889255524,-0.110966712236404,-0.153957143425941,-0.0891311541199684,-0.0312164817005396,-0.0578256770968437,0.191157877445221,0.464305877685547,0.543332636356354,0.277812391519547,-0.0209465976804495,-0.171317234635353,-0.217063948512077,-0.259376585483551,-0.331624656915665,-0.502472162246704,-0.732130944728851,-0.956583082675934,-0.124968141317368,-0.156616166234016,0.176286771893501,-0.158392667770386,-0.175440594553947,-0.117582380771637,-0.261793673038483,-0.478906869888306,-0.462311506271362,-0.358964145183563,-0.39794909954071,-0.238734796643257,-0.261835783720016,-0.191651672124863,-0.141171351075172,-0.123814709484577,0.262546300888062,0.623035252094269,0.621293663978577,0.217474743723869,-0.0663629621267319,-0.0563095286488533,-0.0669858604669571,-0.0859640091657639,-0.38593515753746,-0.612770020961761,-0.529780268669128,-0.754307925701141,0.0224490948021412,-0.0778511688113213,-0.0552414208650589,-0.0343419276177883,-0.166637897491455,-0.0586169026792049,0.0016409408999607,-0.326865166425705,-0.20621931552887,-0.0642926692962646,-0.0410726368427277,-0.100324422121048,-0.22704005241394,-0.329069077968597,-0.412298917770386,-0.208337381482124,0.322320938110352,0.701423764228821,0.461625933647156,0.133913174271584,0.020808145403862,-0.050160638988018,-0.252367526292801,-0.303688824176788,-0.192153409123421,-0.310766607522964,-0.257291942834854,-0.613693118095398,-0.242157995700836,-0.329315632581711,-0.248821631073952,0.174872025847435,-0.14877749979496,0.00894491095095873,0.143664836883545,-0.18799002468586,-0.397328972816467,-0.207583114504814,-0.131311297416687,-0.00658060237765312,-0.283139944076538,-0.615431666374207,-0.605577409267426,-0.211344137787819,0.306193441152573,0.601494014263153,0.382650822401047,0.140824422240257,0.0438145138323307,-0.282789349555969,-0.447634696960449,-0.289653122425079,-0.133592963218689,-0.4277164041996,-0.595210552215576,-0.753929018974304,-0.413064420223236,-0.36646768450737,-0.209852114319801,0.0300596356391907,-0.115778677165508,-0.226330816745758,0.282283246517181,0.193402156233788,-0.358122259378433,-0.628376841545105,-0.32394951581955,-0.144159376621246,-0.292078852653503,-0.727190971374512,-0.460859745740891,-0.034423653036356,0.404791831970215,0.549471318721771,0.40030637383461,0.0963482782244682,-0.120224930346012,-0.45868656039238,-0.399807900190353,-0.209668636322021,-0.189263120293617,-0.244833797216415,-0.146361082792282,-0.053027018904686,-0.155611500144005,0.0712025240063667,-0.291883319616318,0.0260107275098562,-0.0242516435682774,-0.195524260401726,0.219739988446236,0.130945965647697,-0.486655026674271,-0.541389167308807,-0.146361887454987,-0.104342870414257,-0.337165236473083,-0.432457506656647,-0.177400678396225,0.0803152099251747,0.372768819332123,0.519013524055481,0.243592143058777,0.0237005408853292,-0.380764454603195,-0.447481989860535,-0.595801591873169,-0.504513323307037,-0.340978741645813,-0.533845663070679,-0.49906200170517,-0.305624306201935,-0.338471800088882,-0.184325128793716,-0.195331513881683,-0.0458085276186466,0.159552827477455,-0.129020273685455,-0.388583272695541,-0.483102023601532,-0.286565691232681,-0.390428215265274,-0.212902307510376,-0.189553886651993,-0.248529627919197,-0.170227512717247,-0.128045916557312,-0.0174640603363514,0.351125150918961,0.462451964616776,0.0456929504871368,-0.235432848334312,-0.609924554824829,-0.575082242488861,-0.507008075714111,-0.4216029047966,-0.174438089132309,-0.338227570056915,-0.476285040378571,-0.152407422661781,-0.472156912088394,-0.395195990800858,-0.250253915786743,-0.00341845885850489,0.175643756985664,0.116219751536846,-0.667945504188538,-0.109496936202049,-0.475856691598892,-0.539666652679443,-0.450454533100128,-0.268531531095505,-0.220816969871521,-0.109751857817173,-0.233868390321732,0.0295488461852074,0.328708380460739,0.394783198833466,-0.0173965450376272,-0.420544415712357,-0.515516817569733,-0.414105474948883,-0.205150067806244,-0.212971568107605,-0.113767504692078,-0.0879621580243111,-0.212250098586082,-0.0964944586157799,-0.248773530125618,-0.470643997192383,-0.283221215009689,0.120867289602757,0.301112145185471,-0.312814831733704,-0.68389767408371,-0.763622283935547,-0.652758717536926,-0.87809807062149,-0.504798412322998,-0.0885737612843513,-0.0298016704618931,-0.212655574083328,-0.166469633579254,-0.0584862865507603,0.18309485912323,0.217504695057869,-0.176399067044258,-0.345110774040222,-0.279871493577957,-0.102766133844852,-0.0764422863721848,0.0657614096999168,-0.0485471226274967,-0.164592459797859,-0.101345010101795,-0.0316438116133213,-0.0733834579586983,-0.488174259662628,0.192594021558762,0.182934790849686,0.181433647871017,-0.0377002879977226,-0.550598502159119,-0.774784207344055,-0.833136737346649,-0.438056081533432,-0.0961316823959351,-0.041163869202137,0.00760227255523205,-0.0415209606289864,-0.0278254877775908,-0.020612308755517,0.162980586290359,-0.0363291800022125,-0.117746368050575,-6.04656888754107e-5,-0.0383154600858688,0.115735471248627,0.209421947598457,0.101139269769192,-0.106469191610813,-0.0968730077147484,-0.0747018977999687,-0.0172373540699482,0.0348390005528927,-0.460753887891769,0.254780769348145,0.0222229324281216,-0.17377120256424,-0.328628897666931,-0.169924065470695,-0.215948060154915,-0.483470410108566,-0.0801822990179062,0.0663770586252213,0.034504346549511,0.065692201256752,0.099823921918869,0.0985175892710686,0.0627827867865562,-0.0279780868440866,-0.0151781737804413,-0.109759770333767,0.164247781038284,0.197273015975952,0.210362076759338,0.271581947803497,0.150076195597649,0.0844214782118797,-0.136914595961571,-0.173677235841751,0.0307504944503307,0.0904627293348312,-0.394194692373276,0.213853016495705,0.188893884420395,0.147431641817093,-0.224370941519737,0.119690768420696,0.178967788815498,0.185263648629189,0.2000942081213,0.0907640904188156,0.0026350854896009,0.027256116271019,0.0953734144568443,-0.0756079778075218,-0.202121928334236,-0.235008046030998,-0.0849945917725563,0.0312616229057312,0.0831142514944077,0.0995780453085899,0.168961971998215,0.209536299109459,0.170667007565498,0.242535173892975,-0.247751951217651,-0.127063855528831,0.269698232412338,0.240427657961845,-0.476233720779419,0.0158481877297163,0.171030029654503,0.214596852660179,-0.210294619202614,-0.0330723524093628,0.218265756964684,0.548624336719513,0.26858988404274,0.12689745426178,0.0424342788755894,0.0403308495879173,-0.0423608273267746,-0.355538457632065,-0.396884173154831,-0.397058635950089,-0.0994424670934677,0.0556542277336121,0.0226460993289948,0.225866958498955,0.185698568820953,0.145340234041214,0.173605397343636,0.0184852201491594,-0.304849982261658,-0.0785031095147133,0.0651842132210732,0.121011689305305,-0.16602611541748,-0.00236993399448693,0.0132005605846643,-0.00705894781276584,-0.41641840338707,-0.310245037078857,-0.048966683447361,0.301757842302322,0.282383561134338,0.0514651276171207,-0.0423912927508354,-0.000109572494693566,-0.133756682276726,-0.263230264186859,-0.138936996459961,-0.124262720346451,-0.231915310025215,-0.0467930175364017,0.151085689663887,0.282128989696503,0.0160447545349598,0.0454812161624432,-0.0650148764252663,-0.473900884389877,-0.674741089344025,-0.488413572311401,-0.381558746099472,-0.27264392375946,0.206177741289139,-0.0022412845864892,-0.00681154523044825,-0.0244579035788774,-0.16911107301712,-0.308536231517792,-0.473675429821014,-0.133238777518272,-0.0899610742926598,-0.0964226126670837,-0.233828365802765,-0.196952909231186,-0.233188450336456,-0.299483299255371,-0.343112498521805,-0.350807577371597,-0.400209099054337,-0.426781564950943,-0.604263067245483,-0.164819970726967,-0.0114245191216469,-0.02156887575984,-0.0671992003917694,-0.155867606401443,-0.253406673669815,-0.11732991039753,-0.3308424949646,0.245353803038597,0.177899807691574,0.00290015921927989,0.006733822170645,0.00500264670699835,-0.00799780711531639,-0.350866794586182,-0.552512347698212,-0.729259967803955,-0.548010647296906,-0.603200197219849,-0.223623648285866,-0.401476234197617,-1.04606556892395,-1.20647168159485,-0.974234759807587,-0.627895891666412,-0.54111248254776,-0.690441727638245,-1.09104359149933,-1.00440430641174,-0.845138370990753,-0.729087293148041,-0.539319038391113,-0.415735632181168,-0.373832225799561,-0.25116229057312,-0.137818410992622,-0.160225823521614,-0.167234241962433,0.00446347519755363,0.00307484716176987,-0.034488920122385,0.0024652830325067,-0.210219576954842,-0.301076471805573,-0.5167635679245,-0.417232275009155,-0.450905799865723,-0.643818795681,-0.828147292137146,-0.526242911815643,-0.651997745037079,-0.899933040142059,-0.699200034141541,-0.635181069374084,-0.592895805835724,-0.726717293262482,-0.695925235748291,-0.355217844247818,-0.43853971362114,-0.38739225268364,-0.262717604637146,-0.26968914270401,-0.199637472629547,0.0108622061088681,0.00261492398567498,0.0241357292979956,0.0246785283088684,0.0345267280936241,-0.00305032078176737,-0.0342446230351925,0.00422321353107691,0.00921818986535072,0.0275673512369394,-0.0651870220899582,-0.156771034002304,-0.221709594130516,-0.180015414953232,-0.270631313323975,-0.252515137195587,-0.284156560897827,-0.382118076086044,-0.265325456857681,-0.473967164754868,-0.347222685813904,-0.200137078762054,-0.227800220251083,-0.300507873296738,-0.181365713477135,-0.14676496386528,-0.141575008630753,-0.024579580873251,0.0306434538215399,-0.0106931403279305,-0.0140729295089841,0.0199434626847506
0.0253065973520279,-0.0342909805476665,0.016339398920536,-0.0124903721734881,0.030605386942625,0.0258602015674114,0.0124220931902528,-0.0293366052210331,-0.0227111019194126,-0.0170325879007578,0.016620010137558,-0.00708855269476771,0.149808660149574,0.193170443177223,0.177314043045044,0.121720269322395,-0.0329958461225033,-0.0351227000355721,0.0205822829157114,0.00283240061253309,0.0208203084766865,0.0154708232730627,-0.0344297401607037,-0.0237521585077047,-0.00681600579991937,-0.00299132522195578,7.64779997552978e-6,0.0115885278210044,0.011526906862855,-0.0118708228692412,-0.0280011147260666,-0.00514188408851624,-0.197154596447945,-0.196545943617821,-0.274418979883194,-0.243560165166855,-0.134989514946938,-0.260134905576706,-0.396433353424072,-0.491924464702606,-0.935160934925079,-0.0748007968068123,0.000863689638208598,-0.0585543215274811,0.341832637786865,0.108033433556557,-0.243457734584808,-0.314218699932098,-0.370909541845322,-0.316098719835281,-0.335107356309891,-0.24115477502346,0.0288700442761183,0.00269435648806393,-0.0237029511481524,-0.0122224874794483,0.00514970067888498,-0.0126060843467712,-0.0177792012691498,-0.285845220088959,-0.338273704051971,0.063129648566246,-0.146786540746689,-0.253668665885925,0.0444129258394241,0.228325977921486,0.144850164651871,0.129432663321495,0.114251285791397,0.0155086535960436,-0.0227096062153578,0.0150016825646162,0.112826772034168,0.180924817919731,-0.065421998500824,-0.396870791912079,-0.63048779964447,-0.687648415565491,-0.636285305023193,-0.14235021173954,-0.076298289000988,-0.149346858263016,0.0160000398755074,-0.00375290401279926,-0.0225601606070995,-0.0280310958623886,-0.134259253740311,-0.30590495467186,-0.227819502353668,-0.119950190186501,-0.0395013131201267,-0.0313930958509445,0.0555610843002796,0.443753659725189,0.376064777374268,0.351375132799149,0.20096144080162,0.256717622280121,0.128203123807907,0.0940081924200058,0.140942141413689,0.0494455210864544,-0.189576640725136,-0.314010769128799,-0.30059939622879,-0.22316038608551,-0.354351192712784,-0.654492974281311,-0.56234085559845,-0.476679295301437,-0.187328815460205,-0.0237122010439634,0.0171099361032248,-0.181061550974846,-0.346668303012848,-0.141039043664932,-0.263068109750748,-0.041798185557127,0.280405014753342,0.0398038662970066,0.0155083863064647,0.163015604019165,0.18495836853981,0.188611850142479,0.213802874088287,0.188250243663788,0.15788309276104,0.0578681528568268,0.087912917137146,0.060619980096817,-0.0143474033102393,-0.130553334951401,-0.0832608491182327,-0.181478291749954,-0.322526097297668,-0.612750291824341,-1.1292896270752,-0.817202806472778,-0.286894291639328,-0.219146609306335,0.00285212020389736,0.0235126335173845,-0.0287732239812613,-0.0178911201655865,0.131703019142151,0.0458215363323689,0.13883501291275,0.036883257329464,0.118595272302628,0.164169743657112,0.157872781157494,0.191480904817581,0.128803715109825,0.165644913911819,0.13696850836277,0.142891705036163,0.190728381276131,0.0991942435503006,0.0647597685456276,-0.0195652209222317,-0.0675313323736191,-0.0604349784553051,0.00726227508857846,-0.276583611965179,-1.09842669963837,-0.836540997028351,-0.322132557630539,-0.252725452184677,-0.0259800851345062,-0.228533133864403,-0.0931794494390488,0.0300841927528381,0.0969009026885033,0.067381277680397,0.0630024969577789,0.0314757563173771,0.00923861190676689,0.0183055754750967,0.0721135959029198,-0.0273588467389345,0.0329053774476051,0.0997958183288574,0.129015445709229,0.0786557421088219,-0.0142612522467971,0.0151479188352823,0.000476301764138043,-0.0231643058359623,-0.119928531348705,-0.0880196243524551,-0.164209708571434,-0.380276054143906,-0.794226348400116,-0.200522407889366,-0.467381089925766,-0.226490452885628,-0.0168357323855162,-0.359728127717972,0.234168499708176,-0.00248373718932271,0.167595952749252,0.0251046512275934,0.0701466947793961,0.0741498023271561,0.0812179744243622,-0.0730590373277664,-0.0561158880591393,0.0304080992937088,0.0318176038563251,0.0764297470450401,0.055537723004818,-0.0615480057895184,0.0234054494649172,-0.136740371584892,-0.0692055523395538,-0.0197844468057156,-0.13081493973732,-0.0424252897500992,0.0131808407604694,-0.468069225549698,-0.836109101772308,-0.204561322927475,-0.584587752819061,-0.298485398292542,-0.240349322557449,0.158576995134354,0.0386214181780815,-0.19106712937355,0.235313579440117,0.14180089533329,0.0714624375104904,0.130884096026421,0.0146795827895403,0.0513452440500259,0.133938267827034,0.0120006455108523,-0.0618874095380306,0.00637998478487134,0.0714740082621574,0.0588020123541355,-0.0330185331404209,0.00510928593575954,-0.0682255029678345,0.0382686965167522,-0.0286632925271988,0.0159059222787619,-0.0575870275497437,-0.143446952104568,-0.795500040054321,-1.1592458486557,-0.665946900844574,-0.289812088012695,-0.145226076245308,-0.292202919721603,-0.201593205332756,-0.113774284720421,0.0892563164234161,0.283931016921997,0.0123171778395772,0.00951502379029989,-0.0563515275716782,0.0824639201164246,0.109503790736198,0.0146514307707548,0.011891808360815,0.0566949024796486,0.0780990868806839,0.155384287238121,0.111587002873421,0.100867010653019,0.040584784001112,-0.00802201125770807,0.0197054445743561,-0.0317085757851601,-0.000697365729138255,-0.269101709127426,-0.99387913942337,-0.89761757850647,-0.113678835332394,-0.30977475643158,-0.20938478410244,-0.255266308784485,-0.185781970620155,-0.0363322049379349,-0.0458516255021095,0.265355408191681,0.0651763826608658,-0.0902457535266876,-0.046309519559145,-0.0946916192770004,-0.097914420068264,-0.0631546452641487,-0.186898782849312,-0.262007683515549,-0.123220838606358,-0.0961206555366516,-0.0044318363070488,0.0423470921814442,0.0823454931378365,-0.00264288019388914,-0.0449415743350983,-0.00471036182716489,-0.0610576793551445,-0.279367953538895,-0.523438334465027,-0.345740050077438,0.0807148739695549,-0.300672322511673,-0.210990682244301,-0.258397251367569,-0.375656962394714,-0.175458982586861,0.00106007314752787,0.114740490913391,-0.238324642181396,-0.379185169935226,-0.369949489831924,-0.377453148365021,-0.514963209629059,-0.594595432281494,-0.676991045475006,-0.688677430152893,-0.499861389398575,-0.333751022815704,-0.222704499959946,-0.19330096244812,-0.100938886404037,0.0804231688380241,-0.0609460361301899,-0.0222476478666067,-0.145511537790298,-0.172031074762344,-0.249610021710396,0.00964887998998165,0.116086922585964,-0.380266934633255,-0.166960641741753,-0.232636049389839,-0.473960787057877,-0.218973428010941,-0.144338667392731,-0.302112936973572,-0.63249260187149,-0.83117151260376,-0.655446290969849,-0.563792705535889,-0.553698003292084,-0.500348150730133,-0.526882112026215,-0.480148375034332,-0.510556876659393,-0.343300461769104,-0.256574988365173,-0.285823315382004,-0.174332335591316,-0.00332246930338442,-0.0117979422211647,-0.0871028825640678,-0.248096331954002,-0.415655195713043,0.070720374584198,0.46445232629776,0.484488517045975,0.289699822664261,-0.175768658518791,-0.272353947162628,-0.271573394536972,-0.08127710968256,-0.673078417778015,-0.817797958850861,-0.814264535903931,-0.614665329456329,-0.487633436918259,-0.446835875511169,-0.167789950966835,-0.147954255342484,-0.11322870850563,-0.0604624785482883,-0.183776333928108,-0.283673822879791,-0.219250172376633,-0.140799194574356,-0.148635342717171,-0.0738084763288498,-0.0435650199651718,-0.0503407195210457,-0.15476880967617,-0.065400019288063,0.277511537075043,0.672097682952881,0.729620516300201,0.377777367830276,0.0169342868030071,-0.250584036111832,-0.245046153664589,-0.159231632947922,-0.370548039674759,-0.584002912044525,-0.38717257976532,-0.14543317258358,-0.0796934813261032,-0.106638796627522,-0.0853243544697762,-0.0163747128099203,0.0242323726415634,0.0717990323901176,-0.00170019955839962,-0.095083124935627,-0.109544709324837,-0.181966662406921,-0.154669195413589,-0.110574841499329,-0.024553868919611,-0.188643470406532,-0.233422368764877,-0.0542534217238426,0.183400109410286,0.444776952266693,0.67041403055191,0.326465487480164,-0.0335059985518456,-0.193243727087975,-0.0273237526416779,0.287512958049774,0.156653583049774,0.0839549899101257,0.0210182834416628,-0.0577412359416485,-0.0410349816083908,-0.00272507988847792,-0.0267533622682095,-0.0165659617632627,0.0247311536222696,0.106765180826187,0.0490404367446899,-0.0147947799414396,-0.0289729982614517,-0.0588997229933739,-0.094830609858036,-0.0593343302607536,-0.124764233827591,-0.173143804073334,-0.226112976670265,-0.00823257863521576,0.451446175575256,0.574082136154175,0.558782637119293,0.30676344037056,-0.0181036181747913,-0.250851660966873,0.0226474814116955,0.400907278060913,0.239068403840065,0.181680634617805,0.100844360888004,-0.0297109819948673,-0.146378457546234,0.0583080388605595,0.105842657387257,0.135058999061584,0.218446761369705,0.211073130369186,0.0918310508131981,-0.00416360981762409,0.093559704720974,0.115019999444485,0.0451810322701931,-0.0142340650781989,-0.0544414110481739,0.0622149743139744,0.093337208032608,0.129381820559502,0.347736537456512,0.819842040538788,0.760727167129517,0.306010097265244,-0.00219234870746732,-0.232571601867676,0.118521735072136,0.27547150850296,0.229124933481216,0.242260605096817,0.177759438753128,0.0963099226355553,-0.0260646473616362,0.102607645094395,0.153193518519402,0.221681356430054,0.31312358379364,0.208219632506371,0.026356989517808,0.0519931726157665,0.0203361175954342,-0.0699177980422974,0.0031929612159729,-0.0320896506309509,0.00716048432514071,0.116995751857758,0.0922220125794411,-0.0027446283493191,0.29712575674057,0.840441107749939,0.598547697067261,0.449909240007401,-0.184296131134033,-0.259083062410355,-0.0690096020698547,0.00505768600851297,0.291485995054245,0.268347561359406,0.145316898822784,0.269021838903427,0.126905605196953,0.0276398193091154,0.159189447760582,0.216730311512947,0.280720800161362,0.203438520431519,0.102145224809647,0.0521299764513969,0.114568114280701,0.146801203489304,0.0570566803216934,0.0674795061349869,-0.030668867751956,0.0974508672952652,0.193625539541245,0.308153361082077,0.470900624990463,0.676742196083069,0.557856261730194,0.366048991680145,-0.184432208538055,-0.215138703584671,-0.0301975104957819,-0.165568023920059,0.19803412258625,0.126531600952148,0.080022431910038,0.280750960111618,0.134663358330727,0.126934975385666,0.174499720335007,0.223239153623581,0.167833000421524,0.148687437176704,0.0763988494873047,0.0450619794428349,0.122877553105354,0.156607747077942,0.0511876009404659,0.0234400313347578,0.0447208881378174,0.190709218382835,0.279323816299438,0.220783993601799,0.233080327510834,0.595586776733398,0.633499503135681,0.244120672345161,-0.0233971402049065,-0.250101864337921,0.0973895937204361,-0.0490803904831409,0.171563327312469,0.0891901627182961,0.0467634722590446,0.255074471235275,0.109379678964615,0.0912263244390488,0.104964710772038,0.209473043680191,0.153026789426804,0.105632804334164,-0.000591354037169367,0.00904297735542059,0.0485907793045044,0.0339121297001839,0.0897358655929565,0.154678449034691,0.151677578687668,0.110410861670971,0.224338933825493,0.218902185559273,0.265074342489243,0.443589895963669,0.443941086530685,-0.223682701587677,-0.218067839741707,0.0292360242456198,0.161440387368202,0.104637585580349,-0.0216636657714844,0.0454773604869843,0.0880171954631805,0.121406219899654,0.0702116936445236,0.209474071860313,0.165143996477127,0.142647475004196,0.0343591198325157,-0.00222064112313092,0.0254243928939104,-0.112184576690197,0.0164941940456629,0.162554949522018,0.216913178563118,0.293451607227325,0.172015577554703,0.0430596694350243,0.201250419020653,0.328845024108887,0.227703705430031,0.182158693671227,0.0364980548620224,0.0116598326712847,-0.198435828089714,-0.202461719512939,0.107280567288399,0.161690607666969,0.143623307347298,0.0987964868545532,0.165964156389236,0.218933582305908,0.196086719632149,0.228096440434456,0.11763384193182,0.111850298941135,0.00134974112734199,-0.00878742523491383,-0.0264079477638006,-0.108547650277615,-0.0364360958337784,0.0533072985708714,0.216524809598923,0.236960798501968,0.217949569225311,0.134896263480186,0.110851056873798,0.0704191327095032,0.277860224246979,0.0850888937711716,-0.214293017983437,0.0133062116801739,0.0215170104056597,-0.014793517999351,0.0521347485482693,-0.258153289556503,-0.0569475255906582,0.0359711684286594,-0.0103091131895781,0.0402833856642246,0.0255965031683445,0.0444386713206768,-0.00583728589117527,0.057352140545845,0.0392188802361488,-0.0588358975946903,-0.0138678392395377,-0.0804128497838974,-0.071464940905571,-0.0645439252257347,0.127909377217293,0.183703318238258,0.148690044879913,0.222292304039001,0.260994464159012,0.0945260673761368,0.197646006941795,0.0343976877629757,-0.185235098004341,-0.00886084139347076,0.0128853665664792,-0.0123361870646477,-0.283239960670471,-0.464601784944534,-0.370551526546478,-0.499959856271744,-0.421262681484222,-0.264591783285141,-0.107915915548801,-0.0973586142063141,-0.393373727798462,-0.189026370644569,-0.0854070857167244,-0.0824878513813019,-0.0238386914134026,-0.0782280787825584,-0.0658794939517975,0.0324907377362251,0.138157084584236,-0.0399491228163242,-0.0548455417156219,0.0681091248989105,0.0037290183827281,0.0100077213719487,0.448477417230606,0.367474913597107,0.23682077229023,0.0204394049942493,0.0261732917279005,-0.0241229478269815,-0.204511404037476,-0.341382652521133,-0.581390976905823,-1.00305259227753,-0.355450510978699,-0.468068301677704,-0.698556303977966,-0.728149354457855,-0.577698349952698,-0.57892918586731,-0.483416944742203,-0.335611134767532,-0.215888991951942,-0.107291214168072,-0.0778908729553223,-0.186370268464088,-0.304694056510925,-0.331157952547073,-0.310200154781342,-0.413697153329849,-0.371457815170288,-0.505572378635406,-0.141282439231873,0.250329226255417,0.193142667412758,0.014265620149672,0.0271106623113155,0.000547925243154168,0.0250221565365791,-0.196827530860901,-0.357132643461227,-0.597590625286102,-0.961953818798065,-0.672338664531708,-0.733822464942932,-0.873669326305389,-1.06809198856354,-0.433917969465256,-1.34065890312195,-1.02964603900909,-1.14766955375671,-0.718447625637054,-0.688045799732208,-0.517689526081085,-0.656445443630219,-0.845282852649689,-0.569266319274902,-0.483880698680878,-0.384054780006409,-0.520767092704773,-0.0573941357433796,-0.111532799899578,-0.00628604413941503,0.0349382497370243,-0.01685431599617,0.0204491950571537,-0.0264379661530256,0.00791435316205025,0.0225539281964302,-0.091597817838192,-0.212845847010612,-0.298003792762756,-0.283756345510483,-0.502542793750763,-0.562181532382965,-0.671382129192352,-0.489975214004517,-0.744632959365845,-0.513457715511322,-0.821282684803009,-0.634650945663452,-0.670552432537079,-0.297521024942398,-0.293004900217056,-0.300269693136215,-0.316713601350784,-0.236179322004318,-0.256408721208572,-0.00884164217859507,0.0272491630166769,-0.0337768867611885,0.0144700994715095
-0.0148133551701903,-0.000714165333192796,0.0180600080639124,-0.0155576085671782,-0.0257635079324245,0.0168659221380949,0.0124361291527748,-0.0299045238643885,0.0208449829369783,-0.00143358577042818,-0.0152152441442013,-0.00150107685476542,-0.0614640526473522,-0.180278062820435,-0.14276023209095,-0.0769079253077507,-0.0233354177325964,-0.0226723346859217,-0.032878216356039,0.0320859588682652,0.026203278452158,0.000497798784635961,0.0215100757777691,-0.0289539657533169,0.0301492176949978,0.0139876818284392,0.0101574836298823,-0.0158054176717997,-0.00442876573652029,-0.0167231801897287,0.0166940055787563,0.0217102952301502,0.0196984838694334,-0.0341705866158009,-0.0203936025500298,-0.213675200939178,-0.288187921047211,-0.340977638959885,-0.456033617258072,-0.408701807260513,-0.401098161935806,-0.428083747625351,-0.32193398475647,-0.291983127593994,-0.614950954914093,-0.501666605472565,-0.356331586837769,-0.545619964599609,-0.428735077381134,-0.369206875562668,-0.152470290660858,-0.0290082506835461,0.00704305293038487,0.0187554005533457,-0.0121903121471405,0.00976411160081625,-0.0257799029350281,-0.0149781070649624,-0.0243701133877039,-0.138611882925034,-0.0684922486543655,-0.237426683306694,-0.256830424070358,-0.332395434379578,-0.622605323791504,-0.776641845703125,-0.919427037239075,-0.119344271719456,0.0669268369674683,-0.0144256334751844,0.0118282828480005,-0.194247767329216,-0.298774987459183,-0.233414217829704,-0.173955157399178,-0.217033416032791,-0.377618849277496,-0.582142412662506,-0.502679347991943,-0.433771967887878,-0.305160224437714,-0.00165394763462245,-0.0166637860238552,0.0225900691002607,0.00487460801377892,0.0184764638543129,-0.27475243806839,-0.271804183721542,-0.230793789029121,0.267505377531052,0.199156656861305,0.237534821033478,0.25602650642395,0.0821100920438766,0.143901079893112,0.255304664373398,0.31602668762207,0.154388815164566,0.235701605677605,0.0982592925429344,0.161834970116615,0.224167346954346,0.244006514549255,0.290442198514938,0.268193155527115,-0.16896265745163,-0.508425712585449,-0.444450825452805,-0.332381457090378,-0.360371500253677,-0.156329363584518,0.016118111088872,0.0209183804690838,0.194086477160454,0.204604223370552,0.196990460157394,0.190988957881927,0.436277747154236,0.37121245265007,0.376312524080276,0.309233337640762,0.220479756593704,0.252750009298325,0.266331136226654,0.276512682437897,0.260068297386169,0.139491230249405,0.113145209848881,0.178748175501823,0.0686978399753571,0.0682636573910713,-0.000398815929656848,-0.10876590013504,-0.266222268342972,-0.272571176290512,-0.899313867092133,-1.23806571960449,-0.883194088935852,-0.3772232234478,-0.286121308803558,-0.0300637371838093,-0.0223614498972893,0.123781427741051,0.280387252569199,0.177529990673065,0.290317952632904,0.28823110461235,0.197838231921196,0.0957047864794731,0.110943101346493,0.122093826532364,0.146826893091202,0.148888885974884,0.0721782371401787,0.061535157263279,0.117262475192547,0.139494717121124,-0.0406678207218647,0.020919619128108,0.0512286946177483,-0.00691335275769234,-0.145905867218971,-0.272333443164825,-0.418509960174561,-0.591492474079132,-1.2080774307251,-0.474770754575729,-0.254066586494446,0.0211571212857962,0.249216139316559,0.00100031890906394,0.241789996623993,0.177949696779251,0.161392658948898,0.126808032393456,0.0856842398643494,0.103554554283619,0.174872666597366,0.234516695141792,0.159940540790558,0.042040478438139,0.174126371741295,0.083625316619873,0.125566989183426,0.131875410676003,0.0894115939736366,0.128975316882133,-0.0462041199207306,-0.0151010937988758,0.0191374253481627,-0.186516866087914,-0.326635718345642,-0.423625141382217,-1.41993188858032,-0.508795142173767,-0.349369645118713,-0.112799420952797,0.316882610321045,-0.341577231884003,0.271644592285156,0.281656712293625,0.267610996961594,0.132539018988609,0.0314631685614586,0.0623004510998726,0.0737878978252411,0.0310947876423597,0.008658810518682,0.060048408806324,0.0781754553318024,0.196399167180061,0.163774713873863,0.0626085922122002,0.0557109862565994,-0.000917447789106518,0.0948292762041092,-0.0200024917721748,-0.0545102134346962,-0.112012356519699,-0.478346556425095,-0.448611378669739,-1.44436633586884,-0.726102113723755,-0.301379412412643,-0.229569524526596,-0.224319607019424,-0.224440008401871,0.176827415823936,0.247472554445267,0.176435336470604,0.0761347785592079,0.0489553175866604,0.00632890965789557,0.0203844420611858,0.0336374193429947,0.00736710475757718,0.062194712460041,0.0570198632776737,0.117394872009754,0.112362690269947,0.0861718580126762,0.062139593064785,0.146145299077034,0.0947417393326759,0.0294297225773335,0.0427438765764236,0.0357233285903931,-0.553719282150269,-0.927696764469147,-1.31868052482605,-0.705020725727081,-0.416044950485229,-0.280639886856079,-0.561325311660767,0.0419008582830429,0.0817432180047035,0.292654752731323,0.0728677213191986,0.126801550388336,0.0816234201192856,-0.00632269680500031,-0.0533372685313225,-0.181608408689499,-0.285346567630768,-0.255535036325455,-0.0759478583931923,0.157736003398895,0.323531985282898,0.244492873549461,0.128215119242668,0.0960024669766426,0.114112354815006,0.164229601621628,0.153740108013153,0.246760487556458,-0.231204271316528,-1.77633762359619,-0.579572439193726,-0.776021659374237,-0.281699001789093,-0.266575217247009,-0.677761375904083,-0.0725691691040993,0.418439358472824,0.216413035988808,0.021022766828537,0.0614167340099812,-0.123426027595997,-0.216723307967186,-0.40251624584198,-0.457558542490005,-0.486371517181396,-0.374363094568253,0.000561960274353623,0.163854673504829,0.152687147259712,0.123404800891876,0.110745191574097,0.169734299182892,0.136121466755867,0.160234108567238,0.131712079048157,0.183887884020805,0.0335673168301582,-1.25328171253204,-0.152926310896873,-0.715316295623779,-0.302890479564667,-0.311827510595322,-0.621677994728088,-0.0113498261198401,0.526010096073151,0.254346370697021,-0.0709581151604652,-0.220728293061256,-0.395370692014694,-0.414482772350311,-0.437268108129501,-0.250168800354004,-0.18974906206131,-0.132928311824799,0.101583182811737,0.109665900468826,0.105859875679016,0.0806934162974358,0.158805400133133,0.158373221755028,0.10971050709486,0.0990584641695023,-0.156392231583595,-0.0887798592448235,-0.142416104674339,-1.00203204154968,0.00494530005380511,-0.561651825904846,-0.291303128004074,-0.221120581030846,-0.357659101486206,-0.333169728517532,0.230333596467972,-0.0442663133144379,-0.243022844195366,-0.413963556289673,-0.425662249326706,-0.267222970724106,-0.184934228658676,-0.0828172639012337,-0.0882702171802521,0.0156540609896183,0.0734836086630821,0.213358938694,0.0272923074662685,0.0503431595861912,0.0272444095462561,0.111297279596329,-0.0607581995427608,-0.17282734811306,-0.448327869176865,-0.448554784059525,-0.397470355033875,-0.891005754470825,0.152805238962173,-0.571870625019073,-0.238629817962646,-0.222222611308098,-0.322527021169662,-0.548007011413574,0.076179139316082,-0.194171741604805,-0.253772169351578,-0.381998866796494,-0.32941398024559,-0.18153090775013,-0.163864865899086,-0.182511255145073,-0.130530759692192,-0.0468077957630157,0.210495874285698,0.107437908649445,-0.0217830892652273,-0.0211556907743216,0.0421004220843315,0.00939011853188276,-0.0807406604290009,-0.283005774021149,-0.449829012155533,-0.451214730739594,-0.291711330413818,-0.233806312084198,-0.0225792154669762,-0.60036039352417,-0.27660396695137,0.0331307910382748,-0.0199120137840509,-0.438798725605011,-0.0408426895737648,-0.169722378253937,-0.442705482244492,-0.560667335987091,-0.399323403835297,-0.240166112780571,-0.135355740785599,-0.14781779050827,-0.145052045583725,0.0360988490283489,0.0818866565823555,0.0433565154671669,0.019842516630888,-0.0669228434562683,-0.0680916756391525,-0.0475730113685131,-0.063607469201088,-0.224596470594406,-0.174689218401909,-0.253529667854309,-0.188741058111191,-0.150986656546593,-0.392386227846146,-0.318800568580627,-0.230423390865326,-0.163345381617546,-0.222305685281754,0.224730387330055,0.0963636487722397,-0.0768961533904076,-0.215147346258163,-0.335643798112869,-0.322923064231873,-0.193647280335426,-0.179141342639923,-0.145968273282051,-0.107744418084621,0.0469445139169693,0.106430202722549,0.00791837181895971,0.00261207530274987,-0.103433586657047,-0.110331311821938,-0.0267310123890638,0.0854772329330444,0.115484908223152,0.0665546059608459,0.150191009044647,0.184348076581955,0.0911829546093941,-0.85942530632019,0.065664529800415,-0.394707888364792,-0.167084217071533,0.210318475961685,0.311815053224564,0.28288933634758,0.18072983622551,-0.0238992627710104,-0.184581384062767,-0.316452264785767,-0.381699234247208,-0.27713331580162,-0.193669483065605,-0.119490757584572,0.0456395149230957,0.125080063939095,-0.103714607656002,-0.172849833965302,-0.168332070112228,-0.0179481692612171,0.0840217471122742,0.143724486231804,0.0574507042765617,0.100379608571529,0.246431112289429,0.275144428014755,0.27252134680748,-0.661571502685547,-0.406183421611786,-0.296977549791336,0.0235351119190454,0.191284641623497,0.152223899960518,0.453205496072769,0.26105734705925,0.0374980382621288,-0.0674980133771896,-0.152155965566635,-0.261611878871918,-0.494815438985825,-0.509857594966888,-0.427042812108994,-0.289855450391769,-0.265127301216125,-0.282812982797623,-0.224565491080284,-0.063039168715477,0.166266471147537,0.0357690304517746,0.247185274958611,0.087652362883091,0.127217441797256,0.228974401950836,0.179760649800301,-0.18149246275425,-0.661159515380859,-0.484418392181396,-0.450025826692581,-0.219421833753586,0.294329524040222,0.115818545222282,0.587645471096039,0.219824567437172,0.197815507650375,0.062781810760498,-0.208149075508118,-0.12467423081398,-0.304823249578476,-0.431116580963135,-0.401346057653427,-0.460254192352295,-0.352810680866241,-0.275782376527786,0.0159166362136602,0.204394206404686,0.161668747663498,0.179961085319519,0.159802556037903,0.0946402326226234,0.202610448002815,0.218195155262947,0.0528202727437019,-0.272817522287369,-0.922613263130188,-0.764745056629181,-0.320969372987747,-0.146635055541992,0.217651039361954,-0.202157109975815,0.418648958206177,0.192904785275459,0.250353932380676,0.12594823539257,-0.00841635465621948,0.0235953237861395,-0.0573728680610657,-0.155153572559357,-0.222856745123863,-0.29303103685379,-0.173253908753395,-0.113621681928635,0.0384457744657993,0.154484212398529,0.239842310547829,0.195702135562897,0.114196270704269,0.0205446910113096,0.110296860337257,-0.0116515997797251,0.098653718829155,-0.175828859210014,-1.3054473400116,-0.617332816123962,-0.329303950071335,-0.00869490765035152,0.300016939640045,-0.145454123616219,0.409922510385513,0.279073059558868,0.219224959611893,0.205842733383179,0.121030271053314,0.0850937590003014,0.0939276069402695,-0.0670893117785454,-0.174588516354561,-0.228029176592827,-0.0627661049365997,-0.0101439068093896,0.0106128947809339,0.123063616454601,0.128103733062744,0.187316566705704,0.0454251058399677,0.146243900060654,0.0434509478509426,-0.0611486360430717,0.0270732119679451,-0.105594627559185,-1.25137388706207,0.000344234751537442,-0.191488355398178,-0.22459614276886,0.138116538524628,0.0876618400216103,0.307187676429749,0.182734921574593,0.117268994450569,0.179642349481583,0.10081522911787,0.0752786174416542,-0.0805155262351036,-0.0616373717784882,-0.115535020828247,-0.126932755112648,-0.0847487226128578,-0.0704365074634552,0.0632097497582436,0.133135467767715,0.0451427288353443,0.147451013326645,0.173664391040802,0.0134991006925702,-0.0741602927446365,-0.13386432826519,-0.215992942452431,-0.492197722196579,-0.957775235176086,-0.0513632334768772,-0.00479939207434654,-0.215168908238411,0.0791151374578476,0.119511768221855,0.313637495040894,0.0778939202427864,-0.0387207642197609,0.117445595562458,0.0358288735151291,0.0125308865681291,0.0295307449996471,0.00883531011641026,-0.00443158205598593,-0.026059964671731,-0.0459250211715698,-0.0704434290528297,-0.0186368618160486,0.0193073228001595,0.0575460456311703,0.104713819921017,0.113800674676895,-0.0338528864085674,-0.105061165988445,0.0183093715459108,-0.256723582744598,-0.621280670166016,-0.331569373607635,0.120172545313835,0.0146221127361059,-0.0202210191637278,-0.0205358304083347,0.352666616439819,0.591592609882355,0.37151113152504,0.222760528326035,0.180697575211525,0.198512330651283,0.0108612691983581,0.106978252530098,0.136556476354599,0.128669530153275,-0.069494791328907,0.0493485666811466,0.0124531285837293,0.0212556608021259,-0.105016127228737,0.0602883473038673,0.160472571849823,0.0385906733572483,0.0076573328115046,-0.0505254939198494,-0.264895915985107,-0.392891108989716,-0.153839454054832,-0.246723636984825,0.199709311127663,0.0209095105528831,0.010323996655643,0.0283767022192478,0.351245760917664,0.453425824642181,0.555139005184174,0.397560566663742,0.397799551486969,0.453457176685333,0.191193014383316,0.160428568720818,0.234056308865547,0.179286062717438,0.200686827301979,0.189698845148087,0.170122429728508,0.0923532992601395,0.0893737822771072,0.117465190589428,-0.121889248490334,-0.130541995167732,-0.101667240262032,-0.130575910210609,-0.249490350484848,-0.196094542741776,-0.337759375572205,-0.209936484694481,-0.224813506007195,-0.0167784653604031,-0.00848554261028767,0.0217204187065363,-0.119106337428093,-0.238803952932358,-0.21988482773304,0.109415419399738,0.244793400168419,0.440199941396713,0.486550211906433,0.465140610933304,0.512809574604034,0.455568581819534,0.482656180858612,0.441812694072723,0.272906005382538,-0.000558272004127502,0.0908488407731056,-0.00316407112404704,0.0112407980486751,0.18432280421257,-0.0847634449601173,-0.305752128362656,-0.326583236455917,-0.45365110039711,-0.27019414305687,-0.160512492060661,-0.130364939570427,0.00361850811168551,-0.0215842239558697,-0.0298506245017052,0.00785017572343349,-0.223934382200241,-0.306442379951477,0.143113598227501,0.033018846064806,0.078862264752388,-0.0253696609288454,-0.0773346424102783,-0.020159212872386,-0.0431891679763794,-0.206955745816231,-0.0969839617609978,-0.0622306130826473,-0.192712664604187,0.103972978889942,0.10689639300108,0.124884456396103,-0.011873179115355,-0.0697643905878067,-0.0676943510770798,-0.0457322709262371,-0.33601701259613,-0.0452478714287281,-0.0928315073251724,-0.00494015915319324,-0.0249749850481749,0.0317446812987328,0.0215418711304665,0.00276185269467533,0.0122163789346814,0.0266517363488674,-0.11278273910284,-0.310079663991928,-0.405296564102173,-0.549180150032043,-0.477135390043259,-0.515436887741089,-0.663595736026764,-0.612505733966827,-0.850627839565277,-0.664376854896545,-0.9685178399086,-1.12505352497101,-1.0082266330719,-0.482540547847748,-0.375628292560577,-0.348620504140854,-0.454498797655106,-0.312805414199829,-0.251488327980042,-0.0328049324452877,0.0223092157393694,-0.00772838992998004,0.0138610564172268
-0.0244395285844803,-0.0281153917312622,0.0255888123065233,0.0273470636457205,0.00506557431071997,0.000557403545826674,-0.0122546534985304,-0.0297187324613333,-0.0103744864463806,0.0170848928391933,0.0301256831735373,-0.0350105352699757,-0.0679133757948875,-0.182550594210625,-0.166233614087105,-0.0715257897973061,-0.0201203990727663,-0.0066952183842659,0.0307548083364964,0.0113425403833389,0.0159797705709934,-0.014014508575201,0.0352396629750729,0.0348046123981476,-0.0060784057714045,0.0042910291813314,-0.0314771756529808,-0.0243530236184597,0.0039188670925796,0.0221940129995346,0.00808113627135754,-0.0317982211709023,-0.160248219966888,-0.18339741230011,-0.24867844581604,-0.215352788567543,-0.351584196090698,-0.452283799648285,-0.429014354944229,-0.643615424633026,-0.636478304862976,-0.665351927280426,-0.812985181808472,-0.600654244422913,-0.609644591808319,-0.717832267284393,-0.491023063659668,-0.261399447917938,-0.343238800764084,-0.240009814500809,-0.294399231672287,-0.24916784465313,-0.0140986824408174,-0.0166326556354761,0.01154531724751,0.00884006824344397,0.0275021344423294,0.0347251556813717,-0.00574583513662219,-0.221704587340355,-0.251354157924652,-0.293948620557785,-0.264719605445862,-0.432005017995834,-0.551191568374634,-0.856268763542175,-0.807249665260315,-1.24965584278107,-1.17625617980957,-1.20562839508057,-0.496454834938049,-0.548632800579071,-0.415384590625763,-0.642865180969238,-1.1931049823761,-0.575659334659576,-0.485507935285568,-0.653641521930695,-0.420824587345123,-0.425311654806137,-0.435549169778824,-0.299252331256866,-0.0146594857797027,-0.013328111730516,-0.0169855374842882,-0.032172366976738,-0.0283880922943354,-0.259799361228943,-0.283980369567871,-0.346296072006226,-0.241762176156044,-0.14168818295002,-0.47884613275528,-0.782102048397064,-0.817181468009949,-0.749123156070709,-0.913059592247009,-1.32813012599945,-0.810628533363342,-0.464036464691162,-0.477970123291016,-0.394011199474335,-0.412403494119644,-0.0889016836881638,-0.0321146659553051,0.0151763930916786,-0.0415316931903362,0.022360997274518,-0.232133507728577,-0.369566887617111,-0.240866988897324,0.0343924127519131,0.00615764316171408,-0.051127802580595,-0.140655681490898,-0.327514708042145,0.198884949088097,0.124897591769695,-0.0787021443247795,0.0533015839755535,-0.273631483316422,-0.378360539674759,-0.579918444156647,-0.355067312717438,-0.277429103851318,-0.383204340934753,-0.339350610971451,-0.20157416164875,-0.262994378805161,-0.304650515317917,-0.205747023224831,0.119441471993923,0.121332034468651,0.152413904666901,0.310793220996857,0.363646298646927,0.312359482049942,-0.0198632627725601,-0.238060340285301,-0.243174582719803,-0.0273353215306997,0.0243165045976639,-0.250477850437164,-0.044210784137249,0.156331405043602,0.0713062062859535,0.118164278566837,0.0113583141937852,0.022927712649107,-0.0658910647034645,-0.242469951510429,-0.121842101216316,-0.0877754762768745,-0.330758720636368,-0.0663065165281296,-0.128660976886749,0.0171486176550388,0.0521253272891045,0.0531349517405033,0.120555035769939,0.0908256769180298,-0.00977689120918512,0.154958695173264,0.430953741073608,0.153819158673286,-0.201073333621025,-0.189541071653366,-0.356802254915237,-0.0171129107475281,-0.158053144812584,-0.349358409643173,-0.173482701182365,0.147981256246567,0.0435462668538094,0.0574480779469013,0.121990576386452,-0.0169906597584486,-0.0859986841678619,-0.0712939500808716,-0.228172346949577,-0.29964354634285,-0.40163579583168,-0.401938229799271,-0.445970803499222,-0.385107636451721,-0.228835731744766,-0.380151838064194,-0.140800803899765,-0.134645462036133,-0.0703926235437393,0.178137615323067,0.368574649095535,0.060994379222393,-0.0764426663517952,0.117384776473045,-0.427683055400848,-0.0406569615006447,-0.215366542339325,-0.35928800702095,0.105527676641941,0.016294352710247,0.207369983196259,0.0746432915329933,-0.0261045917868614,-0.193530589342117,-0.113520264625549,-0.126732394099236,-0.236752673983574,-0.426226496696472,-0.36815020442009,-0.42473116517067,-0.471436351537704,-0.391781181097031,-0.318265080451965,-0.256235688924789,-0.126955270767212,-0.114576019346714,-0.040043730288744,0.0182790774852037,0.177319213747978,0.0528847947716713,0.0266500879079103,0.22529049217701,-0.438691824674606,-0.188664451241493,-0.263534426689148,0.0814097076654434,-0.0775184333324432,-0.0612860172986984,0.136883333325386,-0.0151176499202847,-0.0290779657661915,-0.205548256635666,-0.0270444750785828,-0.147114291787148,-0.137258172035217,-0.236035272479057,-0.261065393686295,-0.44332429766655,-0.371717870235443,-0.337965130805969,-0.233644977211952,-0.092010885477066,-0.0947556421160698,-0.0280911028385162,-0.0488891936838627,-0.128695547580719,-0.0682810842990875,-0.111651673913002,0.00290969316847622,-0.119698859751225,-0.278403669595718,-0.226025193929672,-0.361435979604721,-0.0310778133571148,-0.422340512275696,-0.193421795964241,-0.0646491721272469,-0.147407993674278,-0.118337206542492,-0.16527533531189,-0.0585844032466412,-0.106411352753639,-0.0898927971720695,-0.0343808345496655,-0.174413964152336,-0.534199774265289,-0.356003165245056,-0.155110135674477,-0.0452570840716362,-0.000529162993188947,-0.0257785227149725,0.0130746671929955,-0.103686332702637,-0.133555129170418,-0.204015836119652,-0.446352243423462,-0.43074157834053,-0.417146265506744,-0.337679386138916,-0.246905699372292,-0.39379295706749,-0.288374215364456,-0.385249048471451,-0.12933361530304,-0.235440015792847,-0.245082840323448,-0.108517520129681,-0.00447656726464629,0.0712833255529404,0.0254846327006817,0.0698163658380508,0.0979040861129761,-0.221068263053894,-0.683394253253937,-0.239146888256073,-0.0246410574764013,0.04962557554245,-0.099886380136013,-0.0142070660367608,-0.144617572426796,-0.0744923800230026,-0.0750906616449356,-0.467358738183975,-0.563997328281403,-0.697811186313629,-0.596332132816315,-0.23334564268589,-0.205105498433113,-0.29214745759964,-0.338530302047729,-0.198975533246994,-0.166880562901497,-0.153437167406082,-0.0822991505265236,0.071475438773632,0.187208667397499,0.179147824645042,0.207195490598679,0.173662185668945,0.29619637131691,-0.374396055936813,-0.774890840053558,-0.0080910287797451,0.294437855482101,0.108157150447369,-0.0428053066134453,0.010555524379015,-0.0183825455605984,-0.0578216537833214,-0.16902132332325,-0.488288432359695,-0.776657104492188,-0.884999752044678,-0.405907690525055,-0.21468161046505,-0.129419401288033,-0.193766474723816,-0.376321375370026,-0.259674787521362,-0.3068987429142,-0.0962878614664078,0.128973409533501,0.255762755870819,0.268286794424057,0.226217612624168,0.364012718200684,0.444589823484421,0.415893882513046,-0.163820654153824,-0.368782699108124,0.134429633617401,0.336684554815292,0.148495927453041,0.0420535281300545,0.0667805075645447,0.0909980237483978,0.17890277504921,0.0715859681367874,-0.297748923301697,-0.198006451129913,-0.302997410297394,-0.443970054388046,-0.311747580766678,-0.0692409500479698,-0.208406880497932,-0.347004532814026,-0.256167978048325,-0.161157801747322,0.0763037949800491,0.246494963765144,0.259349465370178,0.290250867605209,0.358313113451004,0.419692903757095,0.496698319911957,0.330556303262711,-0.120850585401058,-0.173688128590584,0.152555927634239,0.291707664728165,0.236734747886658,0.156730651855469,0.136482998728752,0.256406366825104,0.259018123149872,0.111169256269932,-0.14671479165554,-0.240720510482788,-0.147824063897133,-0.322228699922562,-0.226142004132271,-0.0196925885975361,-0.226677551865578,-0.329169869422913,0.0809210911393166,0.193683788180351,0.193185582756996,0.233863890171051,0.293279707431793,0.279107332229614,0.25361567735672,0.286761671304703,0.350877642631531,0.258658826351166,-0.109453991055489,-0.0802958086133003,0.131671503186226,0.420076608657837,0.425223618745804,0.210332602262497,0.29126825928688,0.146934986114502,0.093845397233963,0.0658476129174232,-0.163170948624611,-0.221998780965805,-0.094313770532608,-0.315727233886719,-0.231866478919983,-0.162090271711349,0.19929113984108,0.174618244171143,0.00483891228213906,0.150720313191414,0.122675113379955,0.205232754349709,0.288396447896957,0.255504906177521,0.252094715833664,0.195174157619476,0.238992750644684,0.0646510422229767,-0.129361927509308,0.000731773616280407,0.217625290155411,0.446682691574097,0.293034553527832,0.111139997839928,0.145947560667992,-0.0586347430944443,0.0308600049465895,0.00234122248366475,-0.216625854372978,-0.570346772670746,-0.399088144302368,-0.0199508685618639,-0.232212275266647,-0.190333440899849,-0.04051174223423,-0.155032128095627,-0.337277472019196,-0.281723082065582,-0.0228608045727015,0.105335436761379,0.282145917415619,0.268553286790848,0.193921476602554,0.0389501191675663,0.0160454772412777,-0.0221877880394459,0.0650928467512131,0.257954746484756,0.386711269617081,0.379150062799454,0.234947934746742,0.142715469002724,0.0612329915165901,0.147914439439774,0.070086658000946,-0.0784181877970695,-0.122106112539768,-0.261914700269699,-0.409092575311661,-0.4443239569664,-0.340531170368195,-0.028124863281846,-0.0878132730722427,-0.228020802140236,-0.517483413219452,-0.295000374317169,-0.255518227815628,-0.125154763460159,0.0378407277166843,0.217434406280518,0.0856323391199112,0.0145197259262204,-0.0541545860469341,0.0466647185385227,0.225738227367401,0.346984654664993,0.374778866767883,0.330458372831345,0.152295023202896,0.147434517741203,-0.138548582792282,0.0824853181838989,-0.0220135860145092,-0.119738705456257,-0.109716780483723,-0.322205275297165,-0.607664883136749,-0.412376046180725,-0.264133363962173,-0.242460116744041,-0.0607303828001022,-0.208153069019318,-0.191933184862137,-0.378704458475113,-0.240032985806465,-0.235505193471909,-0.10147325694561,-0.0197301004081964,-0.0105970855802298,-0.226842775940895,-0.176838874816895,0.0655018836259842,0.232186660170555,0.232579410076141,0.220558792352676,0.15631203353405,-0.0836933851242065,-0.10631912201643,-0.152626767754555,-0.0128998905420303,-0.102403342723846,-0.441497564315796,-0.518362164497375,-0.709990501403809,-0.68277245759964,-0.307262927293777,-0.239244803786278,0.00185366102959961,-0.234468773007393,-0.129511490464211,0.0438834764063358,-0.15925632417202,-0.180028662085533,-0.198669478297234,-0.265899568796158,-0.277652472257614,-0.412010133266449,-0.458303064107895,-0.33985635638237,-0.303951680660248,-0.143598899245262,0.0498320758342743,0.0632612258195877,0.00566900987178087,-0.18596687912941,-0.0939282774925232,-0.22433739900589,-0.234015449881554,-0.218466624617577,-0.442026317119598,-0.499633729457855,-0.433280438184738,-0.413977116346359,-0.218752562999725,-0.199324041604996,0.00872728042304516,-0.0816899165511131,0.025059811770916,-0.206324115395546,-0.210079669952393,-0.272165298461914,-0.275110989809036,-0.375839650630951,-0.400038003921509,-0.391023516654968,-0.479533433914185,-0.2964868247509,-0.276346415281296,-0.248021110892296,-0.1072893217206,0.0501840747892857,-0.0154738370329142,-0.040923286229372,-0.0309087261557579,-0.218440234661102,-0.222702741622925,-0.0747905671596527,-0.324612885713577,-0.290687292814255,-0.295580714941025,-0.359966725111008,-0.360803097486496,-0.213719323277473,-0.0133109902963042,-0.110783383250237,-0.100922383368015,-0.295838057994843,-0.243333101272583,-0.182851240038872,-0.489207923412323,-0.523589551448822,-0.221616089344025,-0.21460522711277,-0.344148904085159,-0.17247062921524,-0.226169005036354,-0.252168238162994,-0.157170996069908,-0.0446308963000774,-0.0526604130864143,-0.0102042499929667,-0.0639016777276993,-0.115725338459015,-0.0626414343714714,0.00319155096076429,-0.0698824673891068,-0.182644426822662,-0.263469159603119,-0.320615291595459,-0.317513793706894,0.00880698952823877,-0.0551719143986702,0.00542159890756011,-0.446844398975372,-0.344512343406677,-0.550012052059174,-0.489433914422989,-0.413041561841965,-0.427285552024841,-0.22664250433445,-0.198125407099724,-0.155417263507843,-0.173647746443748,-0.203695133328438,-0.148561641573906,-0.185223817825317,-0.0700925141572952,-0.157564923167229,-0.000247467658482492,0.107205457985401,0.133398160338402,0.052107896655798,0.148667097091675,0.0950748026371002,-0.0997983664274216,-0.243825927376747,-0.278403490781784,0.193730816245079,0.0126347988843918,-0.0102543951943517,-0.0110667264088988,-0.273898661136627,-0.289821535348892,-0.586884796619415,-0.802045822143555,-0.167273610830307,-0.155278369784355,-0.116930410265923,0.0177084468305111,-0.10381492972374,-0.0507074035704136,-0.0961139500141144,-0.0908601656556129,-0.144535750150681,-0.0212446860969067,-0.0204938929527998,0.0585973486304283,0.179627627134323,0.0846418738365173,0.101858571171761,0.100160799920559,-0.143437802791595,-0.178019613027573,-0.347147256135941,-0.0496424995362759,0.232834219932556,-0.0274320375174284,-0.0286811944097281,0.0151508180424571,-0.0276463590562344,-0.429334431886673,-0.739670395851135,-0.272421032190323,-0.0482499450445175,-0.0844282209873199,-0.170144870877266,0.0146859874948859,-0.123332940042019,-0.0223248787224293,-0.165888205170631,-0.14760410785675,-0.167447239160538,-0.114785417914391,-0.00171029008924961,-0.103506200015545,0.0331389643251896,0.176778703927994,0.0773971155285835,0.00389844598248601,-0.163129732012749,-0.0516538470983505,-0.417208313941956,-0.141358450055122,-0.226396396756172,-0.035325150936842,-0.0278976615518332,0.0266937557607889,-0.234875038266182,-0.199430391192436,-0.0102171022444963,-0.113909371197224,-0.189280942082405,-0.286319881677628,-0.624340176582336,-0.379784107208252,-0.323320269584656,-0.38659393787384,-0.489382416009903,-0.358492523431778,-0.323786616325378,-0.301721662282944,-0.450556635856628,-0.611940979957581,-0.473429054021835,-0.495619893074036,-0.464922994375229,-0.440549254417419,-0.343104392290115,-0.19069804251194,-0.310242176055908,-0.229293972253799,-0.208334565162659,-0.0110120316967368,-0.00982066988945007,-0.0352034233510494,0.0250998884439468,-0.198682457208633,0.083360567688942,0.00281152478419244,-0.0873036161065102,-0.638198792934418,-0.614058494567871,-0.833196997642517,-0.895679950714111,-1.01075553894043,-0.880971491336823,-1.12958598136902,-1.28792536258698,-0.812671184539795,-1.23717045783997,-1.15749394893646,-1.22279298305511,-0.768718719482422,-0.750100314617157,-0.625883519649506,-0.61217588186264,-0.0337700322270393,-0.132816269993782,-0.0200781915336847,-0.0350760146975517,-0.0138295730575919,0.0332771092653275,0.00730929896235466,0.0241973791271448,-0.00779183628037572,-0.0313639268279076,-0.074983075261116,-0.363805264234543,-0.287732601165771,-0.258379220962524,-0.325083166360855,-0.367847621440887,-0.667445003986359,-0.411549240350723,-0.753254652023315,-0.647500932216644,-0.409532129764557,-0.551582217216492,-0.581143498420715,-0.515602588653564,-0.441658765077591,-0.440560281276703,-0.25176215171814,-0.343923449516296,-0.279362410306931,-0.0095799071714282,-0.0298228282481432,0.0217653140425682,-0.0216228626668453
-0.015772320330143,-0.0302157048135996,-0.0339445397257805,-0.00133649096824229,-0.0347989201545715,0.00593506311997771,0.0346731580793858,-0.00842505693435669,-0.00426616100594401,0.0123800551518798,-0.0232445541769266,-0.0115027483552694,0.00379862240515649,-0.0279914122074842,-0.053851380944252,-0.0167472809553146,0.0301573034375906,-0.032275278121233,-0.0130306947976351,0.0281700473278761,-0.0192308947443962,0.0332154519855976,-0.0200152676552534,0.0293443463742733,-0.00639400538057089,-0.0333566814661026,0.00213501928374171,-0.018291499465704,-0.00115497363731265,-0.0216412786394358,-0.0108188511803746,0.0272215250879526,-0.000518042827025056,-0.0399010106921196,-0.0132833793759346,-0.137651741504669,-0.226077288389206,-0.300934851169586,-0.243774622678757,-0.363093107938766,-0.433833837509155,-0.608408451080322,-0.757888555526733,-0.597078323364258,-0.586286962032318,-0.534862279891968,-0.438973665237427,-0.376472771167755,-0.492570638656616,-0.420945882797241,-0.281974852085114,-0.128365084528923,-0.0296264737844467,0.000617163837887347,-0.0300516244024038,0.0134687824174762,0.0181896444410086,-0.00141801487188786,-0.0170984696596861,-0.235972806811333,-0.391261875629425,-0.276504933834076,-0.218061164021492,-0.290541052818298,-0.452045440673828,-0.46531355381012,-0.744204699993134,-0.756562411785126,-0.730104684829712,-0.908075511455536,-0.963338911533356,-0.322542279958725,-0.0520152822136879,0.0714974924921989,0.00347547605633736,0.0430808663368225,-0.201900482177734,-0.297034621238708,-0.25742644071579,-0.415656119585037,-0.254516184329987,-0.168677359819412,-0.0130593292415142,-0.00658664666116238,-0.0310682654380798,-0.0105893444269896,-0.181711345911026,-0.247479945421219,-0.314235597848892,-0.241301566362381,-0.318879246711731,-0.66829913854599,-0.118343956768513,-0.213441759347916,-0.251417100429535,-0.294700413942337,-0.144764482975006,-0.186729684472084,-0.173929646611214,-0.0696441382169724,-0.00796842761337757,0.0727696865797043,0.132855340838432,0.141676396131516,0.2061498016119,0.130136504769325,0.109771870076656,-0.145123660564423,0.0261011887341738,0.252588540315628,0.143476530909538,0.0222530569881201,-0.0280353464186192,-0.188651755452156,-0.244872242212296,-0.402561098337173,-0.418905973434448,-0.444404512643814,-0.351297467947006,-0.19678145647049,-0.382809698581696,-0.269628256559372,-0.187216147780418,-0.0759213119745255,-0.15120442211628,-0.188393980264664,-0.0527620650827885,0.102463833987713,0.0993293300271034,0.0882478728890419,0.13375335931778,0.0277557279914618,-0.0452865548431873,0.0966586470603943,0.0611209124326706,0.143153727054596,0.300740599632263,0.275135725736618,0.15108397603035,-0.359725475311279,-0.0306698884814978,-0.00825570989400148,-0.344348430633545,-0.423363566398621,-0.498075306415558,-0.444401293992996,-0.394982129335403,-0.0848942771553993,-0.0617813728749752,0.0381514765322208,0.0822098478674889,0.0773489028215408,-0.00164154346566647,-0.0488484464585781,-0.0578497797250748,-0.0654809102416039,-0.0385041274130344,0.0921414196491241,0.144746139645576,0.0236283671110868,0.080736517906189,0.0701816603541374,0.144756212830544,0.191923379898071,0.383797824382782,0.40855547785759,0.128788724541664,0.0959591194987297,-0.0315275266766548,-0.215743765234947,0.139495477080345,-0.472148030996323,-0.43690288066864,-0.344829082489014,-0.142584905028343,-0.0365025661885738,0.0150382220745087,-0.0494463182985783,0.0158790145069361,0.00229184865020216,-0.00868603214621544,-0.0337678492069244,7.12393084540963e-5,-0.0459134951233864,-0.0143088810145855,0.0606958009302616,0.0744732916355133,0.105847507715225,0.141261473298073,0.0781462267041206,0.120077103376389,0.255360931158066,0.583951532840729,0.356631934642792,0.251133680343628,0.169398069381714,-0.0331289581954479,-0.404763549566269,-0.00101596850436181,-0.783430695533752,-0.701455771923065,-0.340827167034149,-0.0531579330563545,-0.0200685057789087,0.159371674060822,0.076216958463192,0.136226788163185,0.132894217967987,0.111778847873211,0.0444208867847919,0.0264219380915165,-0.129288479685783,0.0715368762612343,0.0195992309600115,0.0220758318901062,0.111631207168102,0.134957045316696,0.137026846408844,0.157514005899429,0.279321938753128,0.693514704704285,0.728714764118195,0.142676591873169,0.046710480004549,-0.187107726931572,-0.430438786745071,-0.425127923488617,-0.888704299926758,-0.825085759162903,-0.28959459066391,-0.195744603872299,-0.166911482810974,0.0801671147346497,0.0238166283816099,0.0124658932909369,0.110269963741302,0.0648738294839859,-0.0784873068332672,-0.109058409929276,-0.215766087174416,-0.10619180649519,-0.0381749458611012,-0.0329281017184258,0.0259494800120592,0.214994624257088,0.112311579287052,0.129579678177834,0.409381210803986,0.734945297241211,0.72846257686615,0.27484917640686,0.0551404617726803,-0.237337827682495,-0.370267689228058,-0.455700546503067,-0.813321352005005,-0.45578721165657,-0.219538599252701,-0.0467261224985123,-0.0363676063716412,0.0343094132840633,0.0524863339960575,0.121554963290691,0.240398064255714,0.187457576394081,-0.0167785231024027,-0.134858444333076,-0.351734101772308,-0.352701723575592,-0.235621631145477,-0.109201371669769,-0.112721092998981,0.00376162328757346,0.145604401826859,0.165602087974548,0.500416398048401,0.98961865901947,0.870810806751251,0.62564492225647,0.284706741571426,-0.187587544322014,-0.452481061220169,-0.439045518636703,-0.639349579811096,-0.202914297580719,-0.149795919656754,-0.0840770155191422,0.127120137214661,0.153666228055954,0.255542486906052,0.198776915669441,0.242939308285713,0.262092351913452,0.131707489490509,0.0297408122569323,-0.133617833256721,-0.27860614657402,-0.31840980052948,-0.312963575124741,-0.263637632131577,-0.148325085639954,-0.0824181661009789,0.0338237695395947,0.43065145611763,0.974527895450592,1.14508724212646,0.875521838665009,0.21802881360054,-0.226336374878883,-0.339392125606537,-0.846556007862091,-0.553928852081299,-0.00509176030755043,0.0153447603806853,0.156832724809647,0.0479212813079357,0.136741891503334,0.101209171116352,0.122524112462997,0.197261244058609,0.232414603233337,0.220902666449547,0.0669564604759216,-0.108532220125198,-0.238850310444832,-0.251292794942856,-0.25305512547493,-0.461482644081116,-0.615938007831573,-0.565864443778992,-0.569618940353394,-0.0749846026301384,0.593891024589539,0.972316741943359,0.634078741073608,0.170328870415688,-0.204837679862976,-0.315851390361786,-0.594169080257416,-0.176245346665382,0.0574645884335041,-0.0332081466913223,0.144905537366867,0.0991272106766701,0.00447925785556436,-0.0654226765036583,0.0980998203158379,0.206503927707672,0.251497864723206,0.226792305707932,-0.0219570267945528,-0.225238516926765,-0.327072530984879,-0.343196660280228,-0.253729403018951,-0.317756652832031,-0.451256096363068,-0.725068151950836,-0.868558883666992,-0.891970098018646,-0.887215197086334,0.00382757070474327,0.351787894964218,-0.24400706589222,-0.121642127633095,-0.25708332657814,-0.546924352645874,-0.015035105869174,0.173439368605614,0.0105902059003711,-0.0643681809306145,0.0897876918315887,-0.0555643625557423,0.0514383353292942,0.0998933464288712,0.216566160321236,0.265700459480286,0.143382474780083,-0.0566263273358345,-0.23820760846138,-0.435039401054382,-0.238232329487801,-0.155391529202461,-0.0941110104322433,-0.127778992056847,-0.174290701746941,-0.454411208629608,-0.692677795886993,-0.722825706005096,-0.416289776563644,-0.0521585829555988,-0.24358731508255,-0.0259251315146685,-0.25285679101944,-0.377293199300766,0.111989289522171,-0.0179105456918478,-0.148852854967117,-0.0975003242492676,-0.0406248345971107,-0.139291197061539,0.150283470749855,0.219072192907333,0.0606184452772141,0.0528365299105644,-0.0363886915147305,-0.109292708337307,-0.179054886102676,-0.292055994272232,-0.254404187202454,-0.117310613393784,-0.140665203332901,-0.0423687100410461,-0.013674346730113,-0.106174930930138,-0.147762760519981,-0.152663454413414,-0.478331685066223,-0.461691737174988,-0.270214408636093,-0.246700614690781,-0.0147734247148037,-0.406984090805054,0.0242907218635082,-0.226928099989891,-0.231205731630325,-0.159461483359337,-0.176765203475952,-0.106897480785847,0.09049192070961,0.106811165809631,0.0816104561090469,0.091272845864296,-0.0409307703375816,-0.285266250371933,-0.310206025838852,-0.21991041302681,-0.237218603491783,0.0275123734027147,-0.0783727020025253,-0.0672648698091507,-0.0156230125576258,-0.0609988756477833,0.0270936414599419,0.0923251211643219,-0.162261113524437,-0.654103994369507,-0.322110295295715,-0.238663405179977,-0.20086233317852,-0.514744818210602,-0.0231250636279583,-0.172392800450325,-0.234930261969566,-0.171201005578041,-0.373280584812164,-0.31507408618927,-0.24974425137043,-0.123536996543407,-0.122812129557133,-0.122579112648964,-0.21931017935276,-0.270435661077499,-0.196869492530823,-0.259354323148727,-0.101537510752678,-0.000521944893989712,-0.00666063791140914,-0.0188545268028975,-0.000611845753155649,-0.0322910062968731,0.134988352656364,0.0953972414135933,-0.196872100234032,-0.619962096214294,-0.271596282720566,0.00788770895451307,-0.252320289611816,-0.557418346405029,-0.0211139656603336,0.033457525074482,0.143077626824379,0.183519348502159,-0.193945199251175,-0.318481773138046,-0.336121708154678,-0.423176914453506,-0.319531202316284,-0.414210617542267,-0.412537068128586,-0.294850200414658,-0.0787778869271278,0.014905983582139,0.0678323358297348,0.102816186845303,0.0643735826015472,0.020652674138546,0.044452328234911,0.0197185650467873,0.105515763163567,0.0881766751408577,-0.332496732473373,-0.736048340797424,-0.273973971605301,-0.226276844739914,-0.304796755313873,-0.324881672859192,0.155849426984787,0.103721141815186,0.257666140794754,0.321733623743057,0.0671435222029686,-0.0851033255457878,-0.166607081890106,-0.224787592887878,-0.230658799409866,-0.241083651781082,-0.111771523952484,-0.0348232164978981,0.00616973638534546,0.0468639545142651,0.134102463722229,0.0317663513123989,0.0333254300057888,0.0952235832810402,-0.0163790881633759,0.0714275389909744,0.139884904026985,0.0930734723806381,-0.115228153765202,-0.561317682266235,-0.368593364953995,-0.00430131191387773,-0.305160045623779,0.254514217376709,0.144792661070824,0.155017420649529,0.214351177215576,0.247405201196671,0.114175148308277,0.185078367590904,0.0460314564406872,-0.0528041459619999,-0.0317407771945,0.0466733574867249,0.0436841696500778,0.0257332623004913,0.0453103184700012,-0.055784959346056,-0.0148984976112843,0.032537367194891,0.0207214001566172,0.147242516279221,-0.0110912108793855,0.0974127128720284,0.126990795135498,0.201152160763741,0.0392540879547596,-0.520110011100769,-0.246113315224648,-0.0245291795581579,-0.228374779224396,0.215883120894432,0.0419705174863338,0.0491287969052792,0.155919894576073,0.115151077508926,-0.0528158508241177,0.188229367136955,0.13449801504612,0.103066183626652,0.115776859223843,0.0161063335835934,0.0403736047446728,-0.0211630240082741,-0.0268379636108875,0.0583683699369431,0.0808485969901085,0.097895585000515,0.0716873332858086,-0.00789323914796114,0.0423493944108486,0.271195143461227,0.118265502154827,0.00902348943054676,0.131528973579407,-0.464634358882904,0.197488769888878,-0.109311029314995,-0.373783320188522,-0.355251580476761,0.0114184953272343,0.148713037371635,0.073956236243248,0.000709617161192,0.0436416678130627,0.119874514639378,0.0769510567188263,0.0495321676135063,0.0630802139639854,0.0955965742468834,0.0539976619184017,0.0542474016547203,0.0580002926290035,0.0703572407364845,0.0428140871226788,-0.00685276184231043,0.00190015800762922,0.0804366618394852,0.140263289213181,0.238248884677887,0.0725066065788269,0.085080161690712,0.164344057440758,0.0684136524796486,0.0305760316550732,-0.0611538253724575,-0.212048575282097,-0.621143102645874,0.0575148947536945,0.179369673132896,-0.0954224169254303,-0.0706183984875679,-0.0846949070692062,-0.0129040144383907,-0.0219259187579155,-0.000198544948943891,0.112223334610462,0.138467282056808,0.191847920417786,0.120135009288788,0.146387189626694,0.126848235726357,0.0919783636927605,0.0718644335865974,0.117034554481506,0.14739727973938,0.0593548603355885,0.122755356132984,0.163639158010483,0.0376021042466164,0.119922153651714,0.188264757394791,0.00960101280361414,-0.00872730370610952,0.0228401683270931,-0.476290345191956,0.103991784155369,0.244779527187347,0.124865375459194,-0.0302353892475367,-0.11663132160902,0.0874296650290489,0.10755980014801,0.133555740118027,0.146023377776146,0.154737696051598,0.0283374767750502,0.0666915252804756,0.0738565176725388,0.125057429075241,0.0469687059521675,-0.0832810178399086,-0.0243925508111715,0.0490286201238632,-0.110142767429352,0.130759313702583,0.178792342543602,0.0318402573466301,0.124008402228355,0.173605248332024,0.0128346998244524,0.00448029115796089,0.0257965475320816,-0.401526421308517,0.141534253954887,-0.147632405161858,0.0175658203661442,0.0457041189074516,-0.13442051410675,0.0290278811007738,0.220803886651993,0.10471074283123,0.176332205533981,0.188318639993668,0.254576772451401,0.166178420186043,0.180174708366394,0.0233762133866549,0.0434082560241222,0.0977013856172562,0.0495581664144993,0.0440795347094536,-0.165686324238777,0.23685647547245,0.0638515502214432,0.0330613739788532,-0.306854456663132,-0.244899898767471,-0.00735109066590667,0.00442839786410332,0.0237270444631577,-0.164849936962128,0.184195622801781,0.205488651990891,0.097186304628849,0.132551461458206,-0.140425711870193,-0.155377313494682,0.0295122396200895,0.0791995748877525,0.12041063606739,0.203141316771507,0.290997326374054,0.122082240879536,0.256078213453293,0.251427680253983,0.235558867454529,0.185944750905037,0.205560445785522,0.187776044011116,0.260241478681564,0.423661679029465,0.397081434726715,0.243796497583389,-0.151480793952942,-0.203422769904137,-0.0109344311058521,-0.00386937195435166,-0.0327706858515739,-0.0224501695483923,-0.183481797575951,-0.428636312484741,-0.387098789215088,-0.556161940097809,-0.517289638519287,-0.43452712893486,-0.178402304649353,-0.0192237608134747,0.103621326386929,-0.0895394906401634,-0.0329574979841709,0.00585660384967923,0.10590647906065,-0.121428288519382,-0.151049688458443,-0.0984611511230469,-0.107926152646542,-0.101135335862637,0.0280201248824596,0.132601454854012,0.0806652456521988,-0.209784671664238,0.0031983267981559,0.000942805840168148,-0.00717015145346522,0.0244441702961922,-0.0157763361930847,-0.00470286840572953,0.0182466059923172,-0.0103836050257087,-0.0757428333163261,-0.290944844484329,-0.382960647344589,-0.420972436666489,-0.46862456202507,-0.809950172901154,-0.86958509683609,-0.702783286571503,-0.727498173713684,-0.77941483259201,-0.746369242668152,-0.948365271091461,-0.709595799446106,-0.334106743335724,-0.290273278951645,-0.338687628507614,-0.390136569738388,-0.350994348526001,-0.223244711756706,0.0282086599618196,-0.0243487004190683,-0.0324951969087124,0.0220812931656837
